#include "epc.h"
#include <eml_trees.h>

static const EmlTreesNode epc_nodes[786] = {
  { 0, 69.500000f, 1, 407 },
  { 0, 60.500000f, 1, 166 },
  { 0, 48.500000f, 1, 69 },
  { 2, 37.500000f, 1, 41 },
  { 4, 194.250000f, 1, 27 },
  { 1, 563.500000f, 1, 11 },
  { 1, 524.500000f, 1, 5 },
  { 4, 185.949997f, 1, 3 },
  { 2, 23.500000f, 1, -1 },
  { 1, 468.500000f, -2, -3 },
  { 2, 7.000000f, -4, -5 },
  { 4, 175.000000f, 1, 3 },
  { 4, 154.650002f, -5, 1 },
  { 0, 20.500000f, -6, -7 },
  { 1, 538.000000f, -2, 1 },
  { 0, 20.500000f, -5, -4 },
  { 0, 23.500000f, 1, 8 },
  { 1, 2354.500000f, 1, 4 },
  { 2, 23.500000f, 1, 2 },
  { 1, 630.500000f, -8, -9 },
  { 1, 906.500000f, -10, -11 },
  { 4, 190.500000f, 1, 2 },
  { 1, 2358.500000f, -12, -13 },
  { 1, 2705.500000f, -14, -15 },
  { 2, 12.500000f, 1, 4 },
  { 1, 661.500000f, 1, 2 },
  { 3, 1.500000f, -16, -17 },
  { 0, 42.500000f, -18, -19 },
  { 0, 24.500000f, 1, 2 },
  { 2, 33.500000f, -20, -21 },
  { 1, 3027.000000f, -22, -23 },
  { 3, 1.500000f, 1, 2 },
  { 1, 985.000000f, -24, -25 },
  { 1, 981.000000f, 1, 6 },
  { 4, 195.000000f, 1, 3 },
  { 2, 15.500000f, 1, -26 },
  { 1, 475.500000f, -5, -27 },
  { 2, 9.500000f, -28, 1 },
  { 0, 1.500000f, -29, -30 },
  { 1, 1606.000000f, 1, 3 },
  { 0, 4.000000f, -31, 1 },
  { 2, 16.500000f, -32, -33 },
  { 0, 16.500000f, -34, 1 },
  { 0, 27.000000f, -2, -35 },
  { 0, 14.000000f, 1, 14 },
  { 1, 3232.000000f, 1, 11 },
  { 1, 2541.000000f, 1, 7 },
  { 4, 192.050003f, 1, 3 },
  { 3, 2.000000f, -36, 1 },
  { 1, 2370.000000f, -37, -38 },
  { 1, 2096.500000f, 1, 2 },
  { 1, 2016.000000f, -25, -39 },
  { 1, 2307.500000f, -40, -41 },
  { 2, 43.500000f, -42, 1 },
  { 4, 196.050003f, 1, -43 },
  { 4, 192.449997f, -44, -45 },
  { 4, 183.550003f, 1, -31 },
  { 2, 38.500000f, -46, -47 },
  { 4, 190.700005f, 1, 8 },
  { 1, 2094.000000f, 1, 2 },
  { 4, 188.600006f, -25, -20 },
  { 1, 2938.500000f, 1, 4 },
  { 1, 2576.500000f, 1, 2 },
  { 1, 2423.000000f, -48, -49 },
  { 0, 29.000000f, -50, -51 },
  { 2, 46.500000f, -52, -53 },
  { 1, 2140.500000f, -25, 1 },
  { 1, 2440.500000f, 1, -25 },
  { 1, 2323.500000f, 1, 2 },
  { 0, 40.500000f, -54, -55 },
  { 0, 47.500000f, -56, -57 },
  { 0, 55.500000f, 1, 38 },
  { 2, 34.000000f, 1, 27 },
  { 1, 832.500000f, 1, 15 },
  { 0, 53.500000f, 1, 8 },
  { 3, 1.500000f, 1, 4 },
  { 2, 20.000000f, 1, 2 },
  { 0, 52.500000f, -58, -25 },
  { 0, 50.000000f, -59, -25 },
  { 2, 16.000000f, 1, 2 },
  { 4, 179.000000f, -60, -25 },
  { 3, 2.500000f, -61, -62 },
  { 4, 142.150002f, 1, 3 },
  { 1, 705.500000f, -63, 1 },
  { 1, 780.500000f, -64, -43 },
  { 3, 2.500000f, 1, 2 },
  { 2, 13.500000f, -65, -66 },
  { 0, 54.500000f, -67, -68 },
  { 3, 1.500000f, 1, 4 },
  { 0, 49.500000f, 1, 2 },
  { 4, 186.299995f, -26, -69 },
  { 4, 161.799995f, -7, -25 },
  { 0, 54.500000f, 1, 4 },
  { 2, 23.500000f, 1, 2 },
  { 4, 192.849998f, -70, -71 },
  { 1, 1315.500000f, -72, -73 },
  { 2, 16.500000f, 1, 2 },
  { 1, 2033.500000f, -74, -75 },
  { 1, 994.000000f, -76, -77 },
  { 1, 1232.500000f, 1, 2 },
  { 1, 1176.500000f, -33, -75 },
  { 2, 41.500000f, 1, 4 },
  { 4, 194.150002f, 1, -75 },
  { 2, 35.500000f, -78, 1 },
  { 1, 1246.000000f, -79, -25 },
  { 2, 61.500000f, 1, -80 },
  { 2, 49.500000f, 1, 2 },
  { 1, 2350.500000f, -81, -82 },
  { 1, 2413.500000f, -83, -84 },
  { 0, 58.500000f, 1, 28 },
  { 2, 55.500000f, 1, 16 },
  { 1, 617.000000f, 1, 8 },
  { 0, 57.500000f, 1, 4 },
  { 1, 554.000000f, 1, 2 },
  { 4, 194.099998f, -85, -1 },
  { 3, 1.500000f, -4, -86 },
  { 2, 13.000000f, 1, 2 },
  { 4, 179.550003f, -71, -87 },
  { 1, 570.500000f, -88, -89 },
  { 2, 19.500000f, 1, 4 },
  { 0, 57.500000f, 1, 2 },
  { 1, 2339.000000f, -90, -25 },
  { 1, 626.000000f, -25, -91 },
  { 1, 757.000000f, 1, 2 },
  { 3, 2.500000f, -92, -93 },
  { 3, 1.500000f, -6, -94 },
  { 1, 2258.000000f, 1, 5 },
  { 2, 59.500000f, 1, -78 },
  { 0, 56.500000f, 1, 2 },
  { 2, 58.500000f, -95, -96 },
  { 4, 192.000000f, -97, -98 },
  { 2, 60.500000f, 1, 4 },
  { 4, 192.949997f, 1, 2 },
  { 4, 190.549995f, -99, -100 },
  { 0, 56.500000f, -43, -101 },
  { 4, 194.349998f, 1, -76 },
  { 4, 193.199997f, -10, -102 },
  { 2, 20.500000f, 1, 16 },
  { 1, 1279.000000f, 1, 8 },
  { 4, 187.650002f, 1, 4 },
  { 4, 187.250000f, 1, 2 },
  { 3, 1.500000f, -103, -104 },
  { 1, 1050.500000f, -105, -106 },
  { 1, 565.000000f, 1, 2 },
  { 2, 7.500000f, -107, -108 },
  { 1, 588.000000f, -25, -109 },
  { 0, 59.500000f, 1, 4 },
  { 4, 186.650002f, 1, 2 },
  { 2, 8.500000f, -110, -111 },
  { 2, 16.500000f, -112, -113 },
  { 4, 186.150002f, 1, 2 },
  { 1, 1286.000000f, -99, -114 },
  { 1, 2069.500000f, -115, -116 },
  { 2, 56.500000f, 1, 7 },
  { 1, 991.500000f, 1, 3 },
  { 2, 30.000000f, 1, -71 },
  { 3, 2.500000f, -117, -118 },
  { 4, 183.150002f, 1, 2 },
  { 4, 121.849998f, -119, -120 },
  { 1, 2162.500000f, -121, -122 },
  { 4, 190.849998f, 1, 4 },
  { 1, 2360.500000f, 1, 2 },
  { 1, 2203.000000f, -123, -124 },
  { 1, 2363.500000f, -10, -125 },
  { 1, 2270.000000f, 1, 2 },
  { 1, 2176.000000f, -126, -127 },
  { 0, 59.500000f, -128, -129 },
  { 0, 64.500000f, 1, 118 },
  { 2, 21.500000f, 1, 56 },
  { 0, 62.500000f, 1, 25 },
  { 3, 1.500000f, 1, 10 },
  { 1, 756.000000f, 1, 5 },
  { 4, 119.049999f, -80, 1 },
  { 4, 186.649994f, 1, 2 },
  { 1, 749.500000f, -130, -131 },
  { 1, 636.500000f, -132, -133 },
  { 4, 188.200005f, 1, 3 },
  { 1, 1554.500000f, 1, -4 },
  { 1, 784.000000f, -28, -134 },
  { 2, 13.000000f, -25, -39 },
  { 4, 184.250000f, 1, 7 },
  { 2, 5.500000f, 1, 3 },
  { 1, 1456.500000f, 1, -135 },
  { 1, 782.000000f, -136, -137 },
  { 0, 61.500000f, 1, 2 },
  { 1, 2057.500000f, -138, -99 },
  { 1, 1168.500000f, -139, -140 },
  { 1, 780.000000f, 1, 4 },
  { 1, 581.000000f, 1, 2 },
  { 2, 16.500000f, -141, -116 },
  { 3, 2.500000f, -142, -143 },
  { 0, 61.500000f, 1, 2 },
  { 2, 9.500000f, -144, -145 },
  { 1, 781.500000f, -25, -146 },
  { 3, 1.500000f, 1, 15 },
  { 1, 799.500000f, 1, 8 },
  { 4, 175.799995f, 1, 4 },
  { 1, 651.000000f, 1, 2 },
  { 1, 630.500000f, -102, -147 },
  { 1, 703.500000f, -102, -99 },
  { 4, 186.400002f, 1, 2 },
  { 0, 63.500000f, -148, -53 },
  { 4, 188.400002f, -149, -150 },
  { 4, 186.500000f, 1, 4 },
  { 0, 63.500000f, 1, 2 },
  { 1, 1633.500000f, -151, -78 },
  { 2, 5.500000f, -152, -153 },
  { 4, 191.650002f, 1, -154 },
  { 1, 1899.500000f, -155, -29 },
  { 4, 185.250000f, 1, 8 },
  { 0, 63.500000f, 1, 4 },
  { 2, 18.500000f, 1, 2 },
  { 4, 133.050003f, -156, -157 },
  { 4, 182.650002f, -158, -159 },
  { 4, 130.699997f, 1, 2 },
  { 1, 829.500000f, -160, -161 },
  { 4, 140.900002f, -162, -163 },
  { 1, 1179.500000f, 1, 4 },
  { 3, 2.500000f, 1, 2 },
  { 1, 800.500000f, -164, -165 },
  { 2, 14.500000f, -166, -167 },
  { 2, 11.500000f, 1, 2 },
  { 4, 185.349998f, -69, -168 },
  { 4, 192.500000f, -169, -170 },
  { 2, 35.500000f, 1, 30 },
  { 0, 62.500000f, 1, 15 },
  { 4, 187.250000f, 1, 7 },
  { 4, 183.550003f, 1, 3 },
  { 3, 1.500000f, -171, 1 },
  { 4, 116.650002f, -172, -173 },
  { 1, 1611.500000f, 1, 2 },
  { 0, 61.500000f, -174, -175 },
  { 1, 2585.000000f, -176, -177 },
  { 1, 1018.500000f, 1, 4 },
  { 3, 2.500000f, 1, 2 },
  { 2, 23.500000f, -178, -179 },
  { 1, 1013.500000f, -180, -5 },
  { 4, 194.250000f, 1, 2 },
  { 1, 1515.500000f, -181, -182 },
  { 3, 3.500000f, -183, -184 },
  { 4, 184.849998f, 1, 8 },
  { 4, 135.449997f, 1, 4 },
  { 4, 117.099998f, 1, 2 },
  { 2, 28.000000f, -185, -186 },
  { 0, 63.500000f, -187, -188 },
  { 3, 2.500000f, 1, 2 },
  { 4, 152.050003f, -189, -190 },
  { 1, 2627.500000f, -191, -192 },
  { 1, 2716.000000f, 1, 4 },
  { 1, 1459.500000f, 1, 2 },
  { 3, 3.500000f, -193, -194 },
  { 4, 190.550003f, -195, -196 },
  { 1, 2759.000000f, -49, 1 },
  { 2, 32.000000f, -4, -89 },
  { 1, 2170.500000f, 1, 16 },
  { 4, 181.449997f, 1, 8 },
  { 4, 161.099998f, 1, 4 },
  { 4, 146.650002f, 1, 2 },
  { 4, 144.200005f, -197, -160 },
  { 4, 151.299995f, -198, -199 },
  { 0, 63.500000f, 1, 2 },
  { 2, 60.000000f, -200, -201 },
  { 2, 48.000000f, -202, -203 },
  { 0, 63.500000f, 1, 4 },
  { 4, 190.449997f, 1, 2 },
  { 0, 62.500000f, -204, -205 },
  { 1, 2075.500000f, -206, -207 },
  { 4, 193.550003f, 1, 2 },
  { 1, 1519.000000f, -208, -209 },
  { 4, 194.750000f, -210, -211 },
  { 4, 191.150002f, 1, 8 },
  { 2, 56.500000f, 1, 4 },
  { 4, 177.400002f, 1, 2 },
  { 0, 63.500000f, -212, -213 },
  { 0, 61.500000f, -214, -215 },
  { 0, 63.500000f, 1, 2 },
  { 2, 58.500000f, -216, -217 },
  { 2, 59.500000f, -218, -219 },
  { 4, 193.750000f, 1, 4 },
  { 1, 2264.500000f, 1, 2 },
  { 2, 56.500000f, -220, -221 },
  { 4, 193.449997f, -222, -223 },
  { 4, 196.949997f, 1, 2 },
  { 2, 49.500000f, -224, -225 },
  { 4, 198.150002f, -226, -227 },
  { 2, 40.500000f, 1, 59 },
  { 3, 1.500000f, 1, 27 },
  { 1, 743.500000f, 1, 12 },
  { 1, 661.500000f, 1, 7 },
  { 2, 7.500000f, 1, 3 },
  { 1, 524.500000f, -3, 1 },
  { 4, 193.099998f, -228, -5 },
  { 1, 647.500000f, 1, 2 },
  { 4, 184.099998f, -229, -230 },
  { 4, 183.800003f, -231, -232 },
  { 1, 742.500000f, 1, -35 },
  { 4, 194.400002f, 1, 2 },
  { 2, 6.500000f, -233, -234 },
  { 1, 674.000000f, -27, -160 },
  { 0, 67.500000f, 1, 8 },
  { 4, 185.299995f, 1, 4 },
  { 2, 21.000000f, 1, 2 },
  { 2, 17.500000f, -235, -236 },
  { 2, 27.000000f, -24, -30 },
  { 1, 882.500000f, 1, 2 },
  { 1, 768.500000f, -237, -238 },
  { 1, 940.000000f, -239, -240 },
  { 2, 18.500000f, 1, 4 },
  { 4, 179.500000f, 1, 2 },
  { 0, 68.500000f, -241, -242 },
  { 1, 828.500000f, -243, -244 },
  { 4, 187.449997f, 1, -35 },
  { 4, 185.449997f, -12, -92 },
  { 4, 183.650002f, 1, 16 },
  { 0, 67.500000f, 1, 8 },
  { 0, 66.500000f, 1, 4 },
  { 2, 21.500000f, 1, 2 },
  { 4, 114.750000f, -245, -246 },
  { 4, 179.000000f, -247, -248 },
  { 2, 24.500000f, 1, 2 },
  { 4, 126.750000f, -249, -250 },
  { 1, 876.000000f, -251, -252 },
  { 1, 971.000000f, 1, 4 },
  { 2, 20.500000f, 1, 2 },
  { 4, 114.149998f, -253, -254 },
  { 3, 2.500000f, -255, -256 },
  { 2, 25.500000f, 1, 2 },
  { 4, 120.450001f, -257, -258 },
  { 3, 2.500000f, -259, -260 },
  { 0, 66.500000f, 1, 8 },
  { 2, 28.500000f, 1, 4 },
  { 1, 773.500000f, 1, 2 },
  { 4, 187.150002f, -261, -262 },
  { 4, 187.050003f, -263, -264 },
  { 0, 65.500000f, 1, 2 },
  { 4, 190.949997f, -265, -266 },
  { 4, 191.650002f, -267, -268 },
  { 2, 11.500000f, 1, 4 },
  { 1, 1336.000000f, 1, 2 },
  { 4, 188.400002f, -269, -270 },
  { 2, 8.500000f, -271, -272 },
  { 4, 191.449997f, 1, 2 },
  { 0, 67.500000f, -273, -274 },
  { 1, 1319.500000f, -275, -276 },
  { 0, 67.500000f, 1, 32 },
  { 0, 66.500000f, 1, 16 },
  { 1, 2165.500000f, 1, 8 },
  { 4, 191.250000f, 1, 4 },
  { 2, 60.000000f, 1, 2 },
  { 0, 65.500000f, -277, -278 },
  { 2, 65.000000f, -279, -280 },
  { 1, 2129.500000f, 1, 2 },
  { 1, 2071.500000f, -281, -282 },
  { 2, 52.000000f, -283, -284 },
  { 2, 59.500000f, 1, 4 },
  { 2, 49.500000f, 1, 2 },
  { 4, 198.449997f, -285, -286 },
  { 1, 2864.000000f, -287, -288 },
  { 0, 65.500000f, 1, 2 },
  { 1, 2321.000000f, -289, -290 },
  { 1, 2391.500000f, -291, -292 },
  { 2, 49.500000f, 1, 8 },
  { 1, 2187.500000f, 1, 4 },
  { 4, 185.449997f, 1, 2 },
  { 1, 1853.000000f, -293, -294 },
  { 2, 42.500000f, -295, -296 },
  { 4, 193.250000f, 1, 2 },
  { 4, 192.949997f, -297, -298 },
  { 1, 2302.500000f, -85, -299 },
  { 4, 191.449997f, 1, 4 },
  { 2, 59.500000f, 1, 2 },
  { 1, 2032.500000f, -300, -301 },
  { 3, 3.000000f, -302, -303 },
  { 1, 2169.500000f, 1, 2 },
  { 1, 2060.500000f, -304, -305 },
  { 1, 2552.500000f, -306, -307 },
  { 4, 191.550003f, 1, 16 },
  { 2, 51.500000f, 1, 8 },
  { 1, 2021.500000f, 1, 4 },
  { 4, 189.550003f, 1, 2 },
  { 0, 68.500000f, -308, -309 },
  { 0, 68.500000f, -310, -311 },
  { 4, 184.650002f, 1, 2 },
  { 4, 170.099998f, -312, -313 },
  { 1, 2233.000000f, -314, -315 },
  { 0, 68.500000f, 1, 4 },
  { 2, 60.500000f, 1, 2 },
  { 1, 2288.500000f, -316, -317 },
  { 1, 1431.000000f, -318, -319 },
  { 1, 651.500000f, 1, 2 },
  { 4, 179.049995f, -100, -29 },
  { 2, 61.500000f, -320, -321 },
  { 1, 2173.500000f, 1, 8 },
  { 2, 48.500000f, 1, 4 },
  { 1, 1855.000000f, 1, 2 },
  { 0, 68.500000f, -322, -323 },
  { 4, 192.849998f, -324, -325 },
  { 1, 2064.500000f, 1, 2 },
  { 1, 1934.500000f, -326, -327 },
  { 1, 2101.500000f, -328, -329 },
  { 1, 2555.500000f, 1, 4 },
  { 0, 68.500000f, 1, 2 },
  { 2, 54.500000f, -330, -331 },
  { 4, 193.750000f, -332, -333 },
  { 2, 50.500000f, 1, 2 },
  { 4, 195.150002f, -334, -335 },
  { 2, 56.500000f, -336, -337 },
  { 3, 1.500000f, 1, 147 },
  { 0, 114.500000f, 1, 118 },
  { 4, 185.949997f, 1, 62 },
  { 0, 79.500000f, 1, 32 },
  { 0, 73.500000f, 1, 16 },
  { 0, 71.500000f, 1, 8 },
  { 4, 177.149994f, 1, 4 },
  { 2, 18.500000f, 1, 2 },
  { 0, 70.500000f, -338, -339 },
  { 2, 20.500000f, -340, -341 },
  { 1, 1302.500000f, 1, 2 },
  { 2, 35.000000f, -342, -12 },
  { 1, 1412.500000f, -343, -344 },
  { 4, 171.349998f, 1, 4 },
  { 1, 567.000000f, 1, 2 },
  { 1, 489.500000f, -100, -345 },
  { 1, 1644.500000f, -346, -347 },
  { 1, 901.500000f, 1, 2 },
  { 1, 655.500000f, -348, -349 },
  { 4, 183.449997f, -350, -351 },
  { 4, 151.299995f, 1, 8 },
  { 1, 634.000000f, 1, 4 },
  { 4, 135.149998f, 1, 2 },
  { 2, 8.500000f, -352, -4 },
  { 1, 590.000000f, -85, -27 },
  { 0, 74.500000f, 1, 2 },
  { 4, 148.250000f, -353, -354 },
  { 4, 151.049995f, -355, -3 },
  { 0, 75.500000f, 1, 4 },
  { 4, 182.250000f, 1, 2 },
  { 1, 567.000000f, -356, -357 },
  { 2, 20.500000f, -358, -359 },
  { 2, 6.500000f, 1, 2 },
  { 4, 184.349998f, -360, -361 },
  { 4, 155.750000f, -76, -362 },
  { 4, 142.250000f, 1, 15 },
  { 4, 93.899998f, 1, 8 },
  { 1, 821.000000f, 1, 4 },
  { 4, 88.299999f, 1, 2 },
  { 2, 5.500000f, -151, -363 },
  { 2, 5.500000f, -364, -365 },
  { 2, 8.500000f, 1, 2 },
  { 1, 939.500000f, -366, -367 },
  { 1, 1917.500000f, -368, -151 },
  { 4, 104.150002f, 1, 3 },
  { 1, 1313.500000f, -80, 1 },
  { 4, 97.649998f, -68, -369 },
  { 1, 631.000000f, 1, 2 },
  { 4, 126.899998f, -53, -370 },
  { 4, 137.400002f, -371, -372 },
  { 2, 18.500000f, 1, 7 },
  { 1, 826.000000f, 1, 4 },
  { 0, 81.000000f, 1, 2 },
  { 4, 184.650002f, -373, -374 },
  { 1, 710.500000f, -125, -25 },
  { 4, 142.500000f, -31, 1 },
  { 4, 183.349998f, -375, -376 },
  { 1, 690.000000f, 1, 4 },
  { 1, 588.500000f, 1, 2 },
  { 4, 166.349998f, -377, -34 },
  { 4, 185.449997f, -378, -379 },
  { 1, 721.500000f, 1, 2 },
  { 1, 701.000000f, -380, -381 },
  { 4, 170.400002f, -382, -383 },
  { 0, 74.500000f, 1, 32 },
  { 0, 72.500000f, 1, 16 },
  { 1, 824.500000f, 1, 8 },
  { 0, 71.500000f, 1, 4 },
  { 1, 729.000000f, 1, 2 },
  { 2, 49.500000f, -384, -385 },
  { 1, 800.000000f, -386, -387 },
  { 4, 188.349998f, 1, 2 },
  { 2, 27.500000f, -388, -64 },
  { 4, 189.750000f, -389, -390 },
  { 4, 189.349998f, 1, 4 },
  { 0, 70.500000f, 1, 2 },
  { 1, 1326.500000f, -391, -392 },
  { 1, 1186.500000f, -393, -394 },
  { 1, 942.000000f, 1, 2 },
  { 4, 191.449997f, -395, -396 },
  { 0, 71.500000f, -397, -398 },
  { 0, 73.500000f, 1, 8 },
  { 1, 2099.500000f, 1, 4 },
  { 1, 808.500000f, 1, 2 },
  { 4, 188.949997f, -399, -400 },
  { 4, 188.050003f, -401, -402 },
  { 2, 7.500000f, 1, 2 },
  { 4, 189.799995f, -25, -27 },
  { 1, 2229.000000f, -27, -403 },
  { 1, 709.500000f, 1, 4 },
  { 1, 583.500000f, 1, 2 },
  { 4, 194.349998f, -404, -199 },
  { 2, 57.500000f, -405, -406 },
  { 4, 192.849998f, 1, 2 },
  { 2, 10.500000f, -407, -408 },
  { 1, 715.500000f, -409, -410 },
  { 0, 81.000000f, 1, 16 },
  { 4, 188.349998f, 1, 8 },
  { 0, 79.500000f, 1, 4 },
  { 0, 75.500000f, 1, 2 },
  { 4, 186.050003f, -411, -412 },
  { 1, 1472.000000f, -413, -414 },
  { 1, 1958.000000f, 1, 2 },
  { 1, 645.500000f, -415, -416 },
  { 4, 186.949997f, -417, -4 },
  { 0, 77.500000f, 1, 4 },
  { 0, 75.500000f, 1, 2 },
  { 1, 1203.500000f, -418, -419 },
  { 2, 56.000000f, -420, -421 },
  { 4, 191.949997f, 1, 2 },
  { 2, 25.500000f, -422, -423 },
  { 1, 726.500000f, -424, -425 },
  { 0, 107.500000f, 1, 5 },
  { 1, 1179.500000f, 1, 2 },
  { 1, 663.500000f, -125, -25 },
  { 4, 192.900002f, 1, -25 },
  { 2, 16.000000f, -426, -36 },
  { 1, 2160.000000f, 1, -427 },
  { 4, 191.699997f, -93, -35 },
  { 1, 1098.000000f, 1, 10 },
  { 4, 186.750000f, 1, 6 },
  { 4, 159.799995f, -428, 1 },
  { 4, 186.349998f, 1, -79 },
  { 2, 5.500000f, -1, 1 },
  { 4, 186.099998f, 1, -43 },
  { 2, 12.000000f, -429, -30 },
  { 2, 6.500000f, -78, 1 },
  { 4, 187.449997f, -93, 1 },
  { 2, 9.500000f, -160, -35 },
  { 1, 1985.000000f, 1, 9 },
  { 4, 194.699997f, 1, -50 },
  { 4, 194.000000f, 1, 5 },
  { 1, 1981.000000f, 1, -89 },
  { 1, 1949.500000f, 1, 2 },
  { 1, 1931.500000f, -430, -89 },
  { 2, 9.500000f, -431, -432 },
  { 2, 6.500000f, 1, -32 },
  { 4, 194.150002f, -160, -53 },
  { 2, 13.500000f, 1, 7 },
  { 1, 2723.500000f, 1, -433 },
  { 4, 193.250000f, 1, 4 },
  { 1, 2213.000000f, 1, 2 },
  { 4, 154.900002f, -434, -435 },
  { 1, 2233.500000f, -34, -436 },
  { 0, 119.000000f, -437, -34 },
  { 1, 2276.000000f, 1, -100 },
  { 2, 15.500000f, -438, -21 },
  { 0, 75.500000f, 1, 127 },
  { 4, 185.449997f, 1, 63 },
  { 0, 72.500000f, 1, 31 },
  { 1, 915.500000f, 1, 15 },
  { 3, 2.500000f, 1, 8 },
  { 4, 175.350006f, 1, 4 },
  { 2, 18.500000f, 1, 2 },
  { 1, 802.000000f, -439, -440 },
  { 4, 158.950005f, -441, -442 },
  { 2, 7.500000f, 1, 2 },
  { 0, 70.500000f, -443, -444 },
  { 4, 183.449997f, -445, -446 },
  { 2, 22.500000f, 1, 4 },
  { 4, 152.199997f, 1, 2 },
  { 4, 144.149994f, -369, -25 },
  { 4, 178.199997f, -447, -448 },
  { 4, 179.400002f, -449, 1 },
  { 1, 893.500000f, -450, -451 },
  { 4, 169.150002f, 1, 8 },
  { 0, 70.500000f, 1, 4 },
  { 4, 124.049999f, 1, 2 },
  { 2, 7.500000f, -452, -453 },
  { 1, 2190.500000f, -454, -455 },
  { 4, 123.150002f, 1, 2 },
  { 1, 2128.500000f, -456, -131 },
  { 2, 5.500000f, -457, -458 },
  { 1, 1747.500000f, 1, 4 },
  { 4, 181.650002f, 1, 2 },
  { 0, 70.500000f, -459, -460 },
  { 3, 2.500000f, -461, -462 },
  { 0, 71.500000f, 1, 2 },
  { 4, 181.050003f, -463, -464 },
  { 2, 14.500000f, -465, -466 },
  { 3, 2.500000f, 1, 16 },
  { 1, 921.500000f, 1, 8 },
  { 4, 175.250000f, 1, 4 },
  { 0, 74.500000f, 1, 2 },
  { 2, 18.500000f, -467, -1 },
  { 1, 807.500000f, -468, -469 },
  { 0, 73.500000f, 1, 2 },
  { 1, 777.500000f, -470, -471 },
  { 2, 16.500000f, -472, -473 },
  { 4, 181.949997f, 1, 4 },
  { 1, 2110.000000f, 1, 2 },
  { 4, 178.650002f, -474, -475 },
  { 1, 2138.500000f, -151, -476 },
  { 1, 1446.500000f, 1, 2 },
  { 1, 1407.500000f, -477, -478 },
  { 0, 73.500000f, -479, -480 },
  { 4, 181.750000f, 1, 8 },
  { 0, 73.500000f, 1, 4 },
  { 4, 163.050003f, 1, 2 },
  { 4, 162.849998f, -481, -482 },
  { 2, 36.500000f, -483, -484 },
  { 1, 2175.500000f, 1, 2 },
  { 4, 159.849998f, -485, -486 },
  { 2, 24.500000f, -78, -487 },
  { 0, 73.500000f, 1, 4 },
  { 2, 50.500000f, 1, 2 },
  { 1, 1561.500000f, -488, -489 },
  { 4, 182.300003f, -490, -491 },
  { 1, 1821.000000f, 1, 2 },
  { 1, 1368.000000f, -492, -493 },
  { 1, 1862.000000f, -494, -495 },
  { 0, 72.500000f, 1, 32 },
  { 4, 192.050003f, 1, 16 },
  { 2, 10.500000f, 1, 8 },
  { 1, 1092.500000f, 1, 4 },
  { 1, 667.500000f, 1, 2 },
  { 1, 630.000000f, -496, -497 },
  { 1, 1019.000000f, -498, -499 },
  { 1, 1519.500000f, 1, 2 },
  { 4, 187.050003f, -500, -501 },
  { 4, 188.750000f, -502, -503 },
  { 2, 39.500000f, 1, 4 },
  { 3, 2.500000f, 1, 2 },
  { 1, 1017.500000f, -504, -505 },
  { 0, 70.500000f, -506, -507 },
  { 0, 70.500000f, 1, 2 },
  { 4, 191.250000f, -508, -509 },
  { 0, 71.500000f, -510, -511 },
  { 0, 71.500000f, 1, 8 },
  { 2, 47.500000f, 1, 4 },
  { 2, 11.500000f, 1, 2 },
  { 1, 1069.500000f, -512, -513 },
  { 1, 1522.500000f, -514, -515 },
  { 1, 2167.500000f, 1, 2 },
  { 1, 2055.500000f, -516, -517 },
  { 0, 70.500000f, -518, -519 },
  { 1, 761.500000f, 1, 4 },
  { 3, 2.500000f, 1, 2 },
  { 4, 194.650002f, -520, -521 },
  { 1, 490.500000f, -132, -522 },
  { 1, 1605.500000f, 1, 2 },
  { 2, 10.500000f, -523, -524 },
  { 1, 2162.500000f, -525, -526 },
  { 4, 191.150002f, 1, 16 },
  { 3, 2.500000f, 1, 8 },
  { 1, 1163.500000f, 1, 4 },
  { 2, 10.500000f, 1, 2 },
  { 4, 188.750000f, -527, -528 },
  { 1, 952.000000f, -529, -530 },
  { 2, 26.500000f, 1, 2 },
  { 2, 12.500000f, -531, -532 },
  { 1, 2263.000000f, -533, -534 },
  { 2, 38.500000f, 1, 4 },
  { 0, 74.500000f, 1, 2 },
  { 4, 187.349998f, -535, -536 },
  { 4, 189.550003f, -537, -538 },
  { 0, 73.500000f, 1, 2 },
  { 2, 53.500000f, -539, -540 },
  { 0, 74.500000f, -541, -542 },
  { 3, 2.500000f, 1, 8 },
  { 1, 1013.500000f, 1, 4 },
  { 4, 193.849998f, 1, 2 },
  { 2, 9.500000f, -543, -544 },
  { 2, 8.500000f, -545, -546 },
  { 4, 193.349998f, 1, 2 },
  { 2, 21.500000f, -547, -548 },
  { 4, 194.650002f, -549, -550 },
  { 2, 39.500000f, 1, 4 },
  { 0, 74.500000f, 1, 2 },
  { 1, 1619.500000f, -551, -552 },
  { 3, 3.500000f, -369, -553 },
  { 1, 2161.500000f, 1, 2 },
  { 2, 48.500000f, -554, -555 },
  { 1, 2428.500000f, -556, -557 },
  { 0, 80.500000f, 1, 62 },
  { 0, 79.500000f, 1, 31 },
  { 4, 191.050003f, 1, 15 },
  { 1, 1150.500000f, 1, 7 },
  { 3, 2.500000f, 1, 4 },
  { 4, 179.550003f, 1, 2 },
  { 1, 659.000000f, -558, -428 },
  { 2, 29.500000f, -559, -75 },
  { 1, 1146.500000f, 1, -560 },
  { 4, 184.050003f, -100, -561 },
  { 4, 182.750000f, 1, 4 },
  { 4, 178.050003f, 1, 2 },
  { 4, 91.000000f, -562, -563 },
  { 2, 20.500000f, -564, -565 },
  { 3, 2.500000f, 1, 2 },
  { 2, 14.500000f, -566, -567 },
  { 3, 3.500000f, -568, -569 },
  { 0, 77.500000f, 1, 8 },
  { 1, 992.500000f, 1, 4 },
  { 3, 2.500000f, 1, 2 },
  { 1, 648.500000f, -570, -571 },
  { 1, 976.000000f, -572, -573 },
  { 2, 48.500000f, 1, 2 },
  { 3, 2.500000f, -574, -575 },
  { 1, 2159.500000f, -576, -577 },
  { 2, 48.500000f, 1, 4 },
  { 3, 2.500000f, 1, 2 },
  { 1, 1145.000000f, -578, -579 },
  { 2, 38.500000f, -580, -581 },
  { 1, 2137.500000f, 1, 2 },
  { 0, 78.500000f, -582, -583 },
  { 1, 2429.500000f, -584, -585 },
  { 3, 2.500000f, 1, 15 },
  { 4, 178.750000f, 1, 8 },
  { 4, 153.250000f, 1, 4 },
  { 4, 136.250000f, 1, 2 },
  { 1, 1455.000000f, -586, -587 },
  { 1, 1690.000000f, -588, -589 },
  { 2, 9.500000f, 1, 2 },
  { 1, 1299.500000f, -33, -590 },
  { 2, 11.000000f, -591, -592 },
  { 1, 1158.500000f, 1, 3 },
  { 4, 179.500000f, -25, 1 },
  { 1, 603.000000f, -593, -594 },
  { 4, 187.150002f, 1, 2 },
  { 1, 1546.000000f, -595, -596 },
  { 1, 1569.500000f, -597, -598 },
  { 4, 189.750000f, 1, 8 },
  { 2, 15.500000f, 1, 4 },
  { 1, 1136.500000f, 1, 2 },
  { 2, 13.000000f, -599, -25 },
  { 1, 1619.000000f, -417, -600 },
  { 1, 718.500000f, 1, 2 },
  { 1, 696.500000f, -601, -602 },
  { 3, 3.500000f, -603, -604 },
  { 1, 2111.500000f, 1, 4 },
  { 1, 2073.500000f, 1, 2 },
  { 1, 1329.000000f, -605, -606 },
  { 1, 2098.500000f, -607, -608 },
  { 2, 52.500000f, 1, 2 },
  { 4, 195.949997f, -609, -610 },
  { 1, 2404.500000f, -611, -612 },
  { 1, 1472.500000f, 1, 28 },
  { 0, 119.500000f, 1, 13 },
  { 4, 193.449997f, 1, 8 },
  { 3, 2.500000f, 1, 4 },
  { 1, 1077.500000f, 1, 2 },
  { 2, 23.000000f, -613, -614 },
  { 2, 15.500000f, -615, -616 },
  { 3, 3.500000f, 1, 2 },
  { 1, 817.500000f, -617, -618 },
  { 0, 106.500000f, -619, -34 },
  { 3, 3.500000f, 1, 2 },
  { 3, 2.500000f, -76, -25 },
  { 2, 32.000000f, -620, 1 },
  { 0, 102.000000f, -85, -53 },
  { 3, 3.500000f, 1, 8 },
  { 3, 2.500000f, 1, 4 },
  { 1, 1079.500000f, 1, 2 },
  { 4, 167.900002f, -621, -622 },
  { 2, 16.500000f, -495, -623 },
  { 1, 1174.500000f, 1, 2 },
  { 2, 21.500000f, -624, -625 },
  { 2, 25.500000f, -626, -627 },
  { 4, 186.399994f, 1, 3 },
  { 2, 32.000000f, -21, 1 },
  { 4, 174.900002f, -628, -49 },
  { 1, 1261.500000f, 1, 2 },
  { 4, 191.350006f, -629, -380 },
  { 4, 191.250000f, -63, -630 },
  { 1, 3187.500000f, 1, 14 },
  { 0, 116.500000f, 1, 8 },
  { 1, 2238.000000f, 1, 4 },
  { 0, 102.000000f, 1, 2 },
  { 4, 181.700005f, -25, -631 },
  { 4, 188.199997f, -632, -633 },
  { 0, 107.500000f, 1, 2 },
  { 1, 2553.500000f, -634, -635 },
  { 3, 2.500000f, -102, -27 },
  { 4, 182.500000f, 1, 3 },
  { 2, 32.000000f, 1, -25 },
  { 4, 171.549995f, -636, -637 },
  { 2, 16.000000f, -4, 1 },
  { 3, 2.500000f, -638, -639 },
  { 2, 36.500000f, -61, -25 } 
};

static const int32_t epc_tree_roots[1] = { 0 };

static const uint8_t epc_leaves[2556] = { 0, 0, 64, 66, 0, 0, 80, 66, 0, 0, 108, 66, 0, 0, 40, 66, 0, 0, 48, 66, 0, 0, 0, 64, 0, 0, 136, 65, 0, 0, 64, 65, 132, 85, 12, 64, 0, 0, 200, 65, 91, 173, 182, 64, 0, 0, 8, 66, 108, 40, 15, 65, 205, 204, 204, 65, 171, 170, 218, 66, 16, 62, 200, 65, 138, 157, 152, 64, 248, 129, 223, 63, 56, 189, 13, 65, 0, 0, 120, 66, 0, 0, 164, 66, 220, 251, 113, 65, 0, 0, 190, 66, 0, 0, 112, 65, 0, 0, 0, 0, 0, 0, 84, 66, 0, 0, 32, 66, 0, 0, 32, 65, 0, 0, 0, 66, 0, 0, 184, 65, 0, 0, 104, 66, 0, 0, 184, 66, 0, 0, 172, 66, 0, 0, 36, 66, 0, 0, 92, 66, 0, 0, 224, 64, 205, 204, 76, 61, 205, 204, 76, 64, 0, 0, 64, 64, 51, 51, 191, 65, 146, 36, 233, 64, 0, 0, 152, 66, 0, 0, 248, 65, 93, 116, 33, 65, 205, 204, 204, 63, 0, 0, 208, 66, 0, 0, 206, 66, 0, 128, 207, 66, 0, 0, 186, 66, 0, 0, 252, 66, 0, 0, 236, 66, 0, 0, 250, 66, 0, 0, 52, 66, 110, 219, 182, 65, 48, 143, 13, 66, 180, 110, 44, 66, 51, 51, 251, 65, 39, 118, 56, 66, 0, 0, 128, 65, 138, 157, 216, 65, 0, 0, 0, 65, 171, 170, 44, 66, 0, 0, 154, 66, 0, 0, 6, 66, 0, 0, 128, 63, 54, 101, 77, 65, 219, 182, 229, 65, 0, 0, 116, 66, 0, 0, 208, 65, 248, 31, 226, 65, 0, 0, 140, 66, 62, 141, 208, 64, 151, 12, 217, 65, 228, 61, 6, 66, 0, 0, 142, 66, 0, 0, 168, 65, 8, 206, 244, 65, 0, 0, 224, 65, 0, 0, 128, 64, 0, 0, 148, 66, 0, 32, 32, 66, 184, 30, 81, 66, 136, 201, 14, 66, 183, 109, 75, 66, 0, 0, 56, 66, 85, 85, 25, 66, 0, 0, 146, 66, 0, 0, 76, 66, 0, 0, 24, 66, 11, 144, 8, 66, 220, 164, 16, 66, 0, 0, 20, 66, 0, 0, 132, 66, 135, 79, 3, 66, 123, 9, 45, 66, 0, 0, 5, 66, 174, 71, 61, 66, 113, 61, 46, 66, 0, 0, 192, 65, 0, 0, 4, 66, 0, 0, 50, 66, 0, 0, 216, 65, 122, 158, 7, 66, 202, 8, 31, 66, 17, 17, 65, 66, 146, 36, 29, 66, 85, 85, 63, 66, 0, 0, 78, 66, 192, 19, 22, 66, 171, 170, 0, 66, 213, 60, 20, 66, 111, 48, 17, 66, 71, 107, 8, 66, 88, 20, 28, 66, 80, 232, 17, 66, 154, 153, 49, 66, 165, 148, 42, 66, 221, 96, 22, 66, 171, 234, 29, 66, 21, 225, 16, 66, 104, 37, 10, 66, 242, 156, 22, 66, 171, 170, 226, 65, 154, 153, 243, 65, 0, 0, 232, 65, 142, 227, 20, 66, 197, 78, 55, 66, 154, 153, 193, 65, 140, 46, 10, 66, 85, 85, 1, 66, 0, 0, 88, 66, 0, 0, 44, 66, 0, 0, 66, 66, 97, 185, 191, 65, 0, 0, 188, 66, 0, 128, 53, 66, 196, 195, 43, 66, 195, 90, 39, 66, 101, 77, 50, 66, 62, 20, 43, 66, 211, 210, 78, 66, 215, 117, 45, 66, 226, 225, 29, 66, 37, 201, 43, 66, 126, 39, 25, 66, 244, 47, 33, 66, 102, 102, 18, 66, 0, 128, 140, 66, 37, 73, 242, 65, 183, 109, 32, 66, 0, 0, 160, 65, 183, 109, 187, 65, 0, 0, 214, 65, 0, 0, 176, 65, 243, 26, 218, 65, 49, 80, 66, 66, 1, 138, 52, 66, 183, 66, 49, 66, 100, 82, 28, 66, 0, 0, 60, 66, 0, 128, 73, 66, 70, 23, 38, 66, 173, 23, 61, 66, 140, 143, 57, 66, 177, 19, 51, 66, 165, 35, 31, 66, 48, 85, 42, 66, 85, 229, 46, 66, 209, 56, 37, 66, 59, 177, 25, 66, 0, 0, 96, 65, 186, 232, 50, 66, 245, 44, 30, 66, 84, 218, 23, 66, 89, 156, 31, 66, 92, 92, 19, 66, 205, 204, 72, 66, 143, 194, 49, 66, 171, 170, 26, 66, 0, 0, 30, 66, 149, 30, 22, 66, 46, 131, 16, 66, 105, 105, 9, 66, 118, 98, 207, 65, 199, 113, 88, 66, 57, 142, 63, 66, 105, 105, 49, 66, 150, 123, 58, 66, 229, 53, 212, 65, 59, 191, 42, 66, 4, 233, 43, 66, 0, 0, 230, 65, 79, 234, 39, 66, 194, 40, 24, 66, 218, 179, 29, 66, 35, 62, 21, 66, 37, 73, 54, 66, 45, 45, 37, 66, 199, 113, 44, 66, 181, 180, 24, 66, 171, 170, 10, 66, 163, 139, 38, 66, 0, 0, 17, 66, 248, 239, 11, 66, 32, 219, 18, 66, 25, 233, 7, 66, 143, 4, 17, 66, 39, 118, 30, 66, 155, 91, 20, 66, 110, 136, 9, 66, 198, 15, 17, 66, 35, 159, 35, 66, 135, 242, 50, 66, 171, 170, 14, 66, 152, 107, 27, 66, 78, 54, 13, 66, 12, 53, 3, 66, 116, 87, 21, 66, 180, 242, 11, 66, 67, 121, 33, 66, 136, 201, 59, 66, 249, 172, 25, 66, 143, 194, 53, 66, 191, 88, 32, 66, 252, 117, 21, 66, 152, 208, 0, 66, 140, 46, 26, 66, 85, 21, 16, 66, 166, 165, 30, 66, 250, 164, 15, 66, 219, 182, 26, 66, 190, 247, 54, 66, 39, 24, 3, 66, 189, 13, 13, 66, 39, 164, 244, 65, 102, 102, 26, 66, 219, 182, 9, 66, 228, 56, 238, 65, 0, 0, 80, 65, 60, 60, 204, 65, 38, 180, 7, 66, 154, 153, 18, 66, 243, 26, 6, 66, 142, 227, 238, 65, 45, 208, 86, 66, 156, 116, 71, 66, 184, 87, 67, 66, 248, 125, 56, 66, 234, 214, 92, 66, 176, 104, 79, 66, 85, 85, 36, 66, 247, 74, 72, 66, 12, 195, 112, 66, 29, 54, 78, 66, 111, 48, 21, 66, 51, 179, 81, 66, 13, 229, 112, 66, 83, 181, 93, 66, 233, 162, 11, 66, 198, 73, 80, 66, 237, 123, 67, 66, 190, 23, 62, 66, 34, 186, 59, 66, 150, 141, 50, 66, 240, 46, 38, 66, 179, 203, 26, 66, 134, 168, 49, 66, 153, 20, 37, 66, 97, 134, 56, 66, 83, 230, 37, 66, 235, 104, 89, 66, 228, 56, 65, 66, 156, 9, 63, 66, 52, 98, 69, 66, 124, 4, 65, 66, 30, 38, 55, 66, 31, 15, 27, 66, 32, 218, 33, 66, 85, 85, 113, 66, 0, 128, 42, 66, 253, 196, 18, 66, 138, 221, 28, 66, 233, 162, 40, 66, 42, 193, 9, 66, 230, 40, 41, 66, 171, 170, 96, 66, 169, 238, 31, 66, 51, 51, 65, 66, 183, 109, 21, 66, 190, 229, 13, 66, 191, 223, 26, 66, 131, 41, 46, 66, 0, 128, 56, 66, 82, 184, 70, 66, 182, 119, 49, 66, 64, 213, 36, 66, 160, 114, 58, 66, 23, 93, 80, 66, 122, 211, 39, 66, 168, 110, 37, 66, 28, 213, 41, 66, 154, 153, 69, 66, 239, 93, 34, 66, 180, 240, 20, 66, 110, 83, 28, 66, 156, 29, 37, 66, 57, 142, 61, 66, 109, 195, 55, 66, 210, 3, 64, 66, 73, 9, 45, 66, 225, 214, 54, 66, 85, 85, 84, 66, 148, 62, 73, 66, 215, 217, 61, 66, 222, 74, 67, 66, 147, 180, 46, 66, 79, 9, 52, 66, 0, 0, 72, 66, 18, 197, 40, 66, 240, 7, 56, 66, 140, 110, 44, 66, 73, 146, 37, 66, 94, 67, 47, 66, 143, 194, 68, 66, 140, 110, 54, 66, 69, 208, 40, 66, 159, 91, 28, 66, 17, 194, 48, 66, 27, 64, 34, 66, 156, 232, 48, 66, 128, 14, 42, 66, 89, 242, 51, 66, 61, 156, 47, 66, 241, 171, 61, 66, 197, 78, 28, 66, 154, 153, 73, 66, 85, 85, 61, 66, 206, 203, 26, 66, 229, 143, 32, 66, 199, 113, 116, 66, 85, 213, 20, 66, 186, 206, 25, 66, 0, 0, 204, 65, 20, 59, 6, 66, 183, 109, 23, 66, 249, 6, 41, 66, 195, 48, 34, 66, 156, 41, 30, 66, 27, 10, 36, 66, 142, 101, 32, 66, 234, 131, 26, 66, 0, 0, 12, 66, 0, 128, 50, 66, 51, 51, 95, 66, 0, 80, 74, 66, 171, 42, 30, 66, 96, 141, 47, 66, 142, 0, 37, 66, 142, 227, 4, 66, 236, 81, 63, 66, 249, 172, 47, 66, 143, 4, 42, 66, 171, 170, 170, 65, 85, 85, 165, 65, 87, 162, 150, 65, 102, 102, 158, 65, 30, 30, 166, 65, 0, 0, 172, 65, 0, 0, 112, 66, 0, 64, 206, 65, 89, 129, 192, 65, 16, 62, 160, 65, 143, 58, 226, 65, 175, 159, 1, 66, 27, 232, 242, 65, 113, 56, 7, 66, 171, 170, 242, 65, 205, 204, 220, 65, 171, 170, 50, 66, 171, 170, 86, 66, 0, 0, 137, 66, 10, 215, 251, 65, 93, 116, 77, 66, 243, 132, 21, 66, 189, 233, 33, 66, 42, 163, 10, 66, 70, 23, 33, 66, 15, 123, 31, 66, 119, 169, 19, 66, 19, 103, 26, 66, 110, 219, 6, 66, 154, 153, 245, 65, 223, 123, 19, 66, 204, 41, 10, 66, 70, 23, 253, 65, 140, 46, 20, 66, 97, 185, 249, 65, 93, 116, 5, 66, 155, 80, 32, 66, 181, 127, 27, 66, 161, 189, 27, 66, 147, 218, 18, 66, 0, 0, 28, 66, 19, 233, 29, 66, 95, 203, 34, 66, 186, 232, 26, 66, 77, 106, 29, 66, 139, 230, 33, 66, 154, 153, 9, 66, 105, 144, 22, 66, 45, 45, 5, 66, 178, 4, 38, 66, 251, 204, 47, 66, 0, 128, 35, 66, 215, 140, 19, 66, 49, 1, 33, 66, 0, 0, 138, 66, 249, 186, 34, 66, 232, 85, 30, 66, 216, 2, 39, 66, 189, 233, 61, 66, 40, 102, 55, 66, 8, 31, 102, 66, 79, 155, 49, 66, 58, 188, 30, 66, 217, 137, 33, 66, 0, 0, 240, 65, 0, 0, 136, 66, 0, 0, 240, 64, 0, 96, 162, 66, 0, 0, 199, 66, 0, 0, 238, 66, 0, 0, 26, 67, 0, 0, 166, 66, 90, 90, 222, 66, 61, 207, 197, 66, 0, 0, 158, 66, 0, 0, 216, 66, 0, 80, 77, 66, 154, 153, 113, 66, 243, 26, 58, 66, 0, 0, 37, 66, 177, 19, 59, 66, 189, 233, 229, 65, 204, 41, 72, 66, 65, 173, 53, 66, 211, 210, 114, 66, 45, 203, 98, 66, 0, 0, 96, 66, 68, 68, 68, 66, 73, 146, 88, 66, 110, 219, 131, 66, 235, 6, 119, 66, 109, 99, 103, 66, 47, 186, 64, 66, 47, 186, 129, 66, 0, 0, 42, 66, 35, 211, 117, 66, 77, 63, 100, 66, 179, 162, 114, 66, 160, 5, 82, 66, 204, 175, 103, 66, 199, 113, 56, 66, 109, 221, 79, 66, 114, 28, 47, 66, 144, 78, 102, 66, 0, 80, 91, 66, 154, 153, 95, 66, 116, 209, 135, 66, 74, 41, 61, 66, 12, 195, 36, 66, 97, 115, 84, 66, 121, 13, 66, 66, 98, 54, 131, 66, 81, 94, 119, 66, 20, 59, 127, 66, 212, 233, 92, 66, 154, 217, 63, 66, 50, 50, 90, 66, 51, 51, 127, 66, 123, 50, 130, 66, 154, 153, 141, 66, 42, 242, 124, 66, 102, 102, 114, 66, 174, 71, 135, 66, 122, 62, 131, 66, 211, 89, 130, 66, 23, 194, 120, 66, 124, 239, 113, 66, 171, 170, 126, 66, 34, 34, 92, 66, 153, 145, 126, 66, 35, 62, 129, 66, 166, 165, 111, 66, 0, 0, 124, 66, 217, 143, 41, 66, 32, 253, 56, 66, 129, 98, 30, 66, 27, 27, 47, 66, 102, 102, 74, 66, 169, 43, 46, 66, 100, 112, 66, 66, 132, 16, 106, 66, 196, 219, 50, 66, 81, 16, 79, 66, 99, 190, 80, 66, 54, 136, 91, 66, 220, 103, 66, 66, 223, 208, 58, 66, 155, 65, 70, 66, 66, 230, 74, 66, 185, 35, 18, 66, 66, 29, 66, 66, 97, 170, 74, 66, 165, 248, 63, 66, 76, 148, 43, 66, 79, 238, 49, 66, 198, 92, 55, 66, 190, 112, 62, 66, 24, 122, 21, 66, 85, 85, 37, 66, 114, 28, 91, 66, 164, 205, 43, 66, 120, 189, 85, 66, 179, 107, 58, 66, 72, 237, 67, 66, 18, 150, 53, 66, 54, 16, 32, 66, 214, 87, 50, 66, 0, 0, 82, 66, 147, 229, 69, 66, 14, 5, 95, 66, 51, 51, 77, 66, 54, 63, 40, 66, 227, 169, 112, 66, 62, 33, 105, 66, 107, 50, 121, 66, 186, 206, 113, 66, 13, 149, 89, 66, 170, 177, 83, 66, 243, 195, 94, 66, 159, 96, 103, 66, 103, 228, 32, 66, 217, 252, 39, 66, 102, 102, 112, 66, 118, 131, 39, 66, 239, 244, 92, 66, 253, 102, 39, 66, 52, 109, 43, 66, 57, 142, 86, 66, 101, 174, 101, 66, 240, 150, 90, 66, 120, 181, 100, 66, 106, 21, 82, 66, 82, 21, 68, 66, 20, 226, 80, 66, 156, 77, 71, 66, 0, 0, 16, 66, 40, 153, 64, 66, 0, 0, 160, 64, 43, 113, 113, 66, 0, 0, 214, 66, 121, 13, 141, 66, 73, 146, 116, 66, 96, 174, 137, 66, 8, 252, 85, 66, 96, 199, 109, 66, 205, 124, 131, 66, 242, 226, 120, 66, 79, 236, 72, 66, 31, 133, 43, 66, 31, 124, 120, 66, 171, 170, 250, 65, 239, 120, 79, 66, 214, 22, 109, 66, 75, 12, 82, 66, 205, 31, 92, 66, 106, 132, 61, 66, 51, 115, 91, 66, 116, 63, 129, 66, 6, 114, 119, 66, 126, 95, 89, 66, 232, 249, 95, 66, 58, 1, 110, 66, 49, 235, 96, 66, 0, 0, 131, 66, 116, 206, 161, 66, 24, 134, 145, 66, 0, 0, 118, 66, 0, 0, 125, 66, 0, 0, 180, 66, 174, 71, 159, 66, 17, 66, 32, 66, 176, 23, 79, 66, 243, 19, 104, 66, 3, 10, 133, 66, 60, 92, 93, 66, 221, 51, 105, 66, 0, 0, 192, 64, 0, 0, 156, 66, 0, 0, 176, 66, 0, 0, 224, 66, 184, 7, 145, 66, 20, 78, 139, 66, 238, 82, 106, 66, 10, 73, 128, 66, 18, 10, 111, 66, 44, 136, 125, 66, 58, 103, 128, 66, 26, 8, 115, 66, 13, 253, 131, 66, 58, 103, 116, 66, 253, 232, 7, 65, 171, 170, 94, 66, 85, 85, 5, 66, 0, 0, 115, 66, 103, 49, 29, 64, 172, 101, 232, 59, 85, 85, 33, 65, 0, 0, 68, 66, 0, 128, 55, 66, 85, 245, 197, 65, 205, 204, 162, 66, 243, 87, 128, 65, 59, 177, 235, 64, 205, 204, 85, 66, 54, 148, 143, 65, 0, 0, 182, 66, 0, 0, 21, 66, 51, 51, 111, 66, 138, 157, 20, 66, 0, 128, 121, 66, 171, 170, 30, 66, 85, 213, 148, 66, 0, 0, 185, 66, 102, 230, 162, 66, 85, 85, 114, 66, 85, 213, 184, 66, 37, 9, 159, 66 };

EmlTrees epc = {
        786,
        (EmlTreesNode *)(epc_nodes),	  
        1,
        (int32_t *)(epc_tree_roots),
        2556,
        (uint8_t *)(epc_leaves),
        32,
        5,
        0,
    };

static inline int32_t epc_tree_0(const float *features) {
          if (features[0] < 69.500000f) {
              if (features[0] < 60.500000f) {
                  if (features[0] < 48.500000f) {
                      if (features[2] < 37.500000f) {
                          if (features[4] < 194.250000f) {
                              if (features[1] < 563.500000f) {
                                  if (features[1] < 524.500000f) {
                                      if (features[4] < 185.949997f) {
                                          if (features[2] < 23.500000f) {
                                              if (features[1] < 468.500000f) {
                                                  return 52.000000f;
                                              } else {
                                                  return 59.000000f;
                                              }
                                          } else {
                                              return 48.000000f;
                                          }
                                      } else {
                                          if (features[2] < 7.000000f) {
                                              return 42.000000f;
                                          } else {
                                              return 44.000000f;
                                          }
                                      }
                                  } else {
                                      if (features[4] < 175.000000f) {
                                          if (features[4] < 154.650002f) {
                                              return 44.000000f;
                                          } else {
                                              if (features[0] < 20.500000f) {
                                                  return 2.000000f;
                                              } else {
                                                  return 17.000000f;
                                              }
                                          }
                                      } else {
                                          if (features[1] < 538.000000f) {
                                              return 52.000000f;
                                          } else {
                                              if (features[0] < 20.500000f) {
                                                  return 44.000000f;
                                              } else {
                                                  return 42.000000f;
                                              }
                                          }
                                      }
                                  }
                              } else {
                                  if (features[0] < 23.500000f) {
                                      if (features[1] < 2354.500000f) {
                                          if (features[2] < 23.500000f) {
                                              if (features[1] < 630.500000f) {
                                                  return 12.000000f;
                                              } else {
                                                  return 2.192719f;
                                              }
                                          } else {
                                              if (features[1] < 906.500000f) {
                                                  return 25.000000f;
                                              } else {
                                                  return 5.708661f;
                                              }
                                          }
                                      } else {
                                          if (features[4] < 190.500000f) {
                                              if (features[1] < 2358.500000f) {
                                                  return 34.000000f;
                                              } else {
                                                  return 8.947368f;
                                              }
                                          } else {
                                              if (features[1] < 2705.500000f) {
                                                  return 25.600000f;
                                              } else {
                                                  return 109.333333f;
                                              }
                                          }
                                      }
                                  } else {
                                      if (features[2] < 12.500000f) {
                                          if (features[1] < 661.500000f) {
                                              if (features[3] < 1.500000f) {
                                                  return 25.030303f;
                                              } else {
                                                  return 4.769231f;
                                              }
                                          } else {
                                              if (features[0] < 42.500000f) {
                                                  return 1.746154f;
                                              } else {
                                                  return 8.858696f;
                                              }
                                          }
                                      } else {
                                          if (features[0] < 24.500000f) {
                                              if (features[2] < 33.500000f) {
                                                  return 62.000000f;
                                              } else {
                                                  return 82.000000f;
                                              }
                                          } else {
                                              if (features[1] < 3027.000000f) {
                                                  return 15.123989f;
                                              } else {
                                                  return 95.000000f;
                                              }
                                          }
                                      }
                                  }
                              }
                          } else {
                              if (features[3] < 1.500000f) {
                                  if (features[1] < 985.000000f) {
                                      return 15.000000f;
                                  } else {
                                      return 0.000000f;
                                  }
                              } else {
                                  if (features[1] < 981.000000f) {
                                      if (features[4] < 195.000000f) {
                                          if (features[2] < 15.500000f) {
                                              if (features[1] < 475.500000f) {
                                                  return 44.000000f;
                                              } else {
                                                  return 40.000000f;
                                              }
                                          } else {
                                              return 53.000000f;
                                          }
                                      } else {
                                          if (features[2] < 9.500000f) {
                                              return 10.000000f;
                                          } else {
                                              if (features[0] < 1.500000f) {
                                                  return 32.000000f;
                                              } else {
                                                  return 23.000000f;
                                              }
                                          }
                                      }
                                  } else {
                                      if (features[1] < 1606.000000f) {
                                          if (features[0] < 4.000000f) {
                                              return 58.000000f;
                                          } else {
                                              if (features[2] < 16.500000f) {
                                                  return 92.000000f;
                                              } else {
                                                  return 86.000000f;
                                              }
                                          }
                                      } else {
                                          if (features[0] < 16.500000f) {
                                              return 41.000000f;
                                          } else {
                                              if (features[0] < 27.000000f) {
                                                  return 52.000000f;
                                              } else {
                                                  return 55.000000f;
                                              }
                                          }
                                      }
                                  }
                              }
                          }
                      } else {
                          if (features[0] < 14.000000f) {
                              if (features[1] < 3232.000000f) {
                                  if (features[1] < 2541.000000f) {
                                      if (features[4] < 192.050003f) {
                                          if (features[3] < 2.000000f) {
                                              return 7.000000f;
                                          } else {
                                              if (features[1] < 2370.000000f) {
                                                  return 0.050000f;
                                              } else {
                                                  return 3.200000f;
                                              }
                                          }
                                      } else {
                                          if (features[1] < 2096.500000f) {
                                              if (features[1] < 2016.000000f) {
                                                  return 0.000000f;
                                              } else {
                                                  return 3.000000f;
                                              }
                                          } else {
                                              if (features[1] < 2307.500000f) {
                                                  return 23.900000f;
                                              } else {
                                                  return 7.285714f;
                                              }
                                          }
                                      }
                                  } else {
                                      if (features[2] < 43.500000f) {
                                          return 76.000000f;
                                      } else {
                                          if (features[4] < 196.050003f) {
                                              if (features[4] < 192.449997f) {
                                                  return 10.090909f;
                                              } else {
                                                  return 1.600000f;
                                              }
                                          } else {
                                              return 31.000000f;
                                          }
                                      }
                                  }
                              } else {
                                  if (features[4] < 183.550003f) {
                                      if (features[2] < 38.500000f) {
                                          return 104.000000f;
                                      } else {
                                          return 103.000000f;
                                      }
                                  } else {
                                      return 58.000000f;
                                  }
                              }
                          } else {
                              if (features[4] < 190.700005f) {
                                  if (features[1] < 2094.000000f) {
                                      if (features[4] < 188.600006f) {
                                          return 0.000000f;
                                      } else {
                                          return 62.000000f;
                                      }
                                  } else {
                                      if (features[1] < 2938.500000f) {
                                          if (features[1] < 2576.500000f) {
                                              if (features[1] < 2423.000000f) {
                                                  return 103.750000f;
                                              } else {
                                                  return 93.000000f;
                                              }
                                          } else {
                                              if (features[0] < 29.000000f) {
                                                  return 126.000000f;
                                              } else {
                                                  return 118.000000f;
                                              }
                                          }
                                      } else {
                                          if (features[2] < 46.500000f) {
                                              return 125.000000f;
                                          } else {
                                              return 45.000000f;
                                          }
                                      }
                                  }
                              } else {
                                  if (features[1] < 2140.500000f) {
                                      return 0.000000f;
                                  } else {
                                      if (features[1] < 2440.500000f) {
                                          if (features[1] < 2323.500000f) {
                                              if (features[0] < 40.500000f) {
                                                  return 22.857143f;
                                              } else {
                                                  return 35.389831f;
                                              }
                                          } else {
                                              if (features[0] < 47.500000f) {
                                                  return 43.108108f;
                                              } else {
                                                  return 31.400000f;
                                              }
                                          }
                                      } else {
                                          return 0.000000f;
                                      }
                                  }
                              }
                          }
                      }
                  } else {
                      if (features[0] < 55.500000f) {
                          if (features[2] < 34.000000f) {
                              if (features[1] < 832.500000f) {
                                  if (features[0] < 53.500000f) {
                                      if (features[3] < 1.500000f) {
                                          if (features[2] < 20.000000f) {
                                              if (features[0] < 52.500000f) {
                                                  return 46.115385f;
                                              } else {
                                                  return 0.000000f;
                                              }
                                          } else {
                                              if (features[0] < 50.000000f) {
                                                  return 16.000000f;
                                              } else {
                                                  return 0.000000f;
                                              }
                                          }
                                      } else {
                                          if (features[2] < 16.000000f) {
                                              if (features[4] < 179.000000f) {
                                                  return 27.076923f;
                                              } else {
                                                  return 0.000000f;
                                              }
                                          } else {
                                              if (features[3] < 2.500000f) {
                                                  return 8.000000f;
                                              } else {
                                                  return 43.166667f;
                                              }
                                          }
                                      }
                                  } else {
                                      if (features[4] < 142.150002f) {
                                          if (features[1] < 705.500000f) {
                                              return 77.000000f;
                                          } else {
                                              if (features[1] < 780.500000f) {
                                                  return 33.500000f;
                                              } else {
                                                  return 31.000000f;
                                              }
                                          }
                                      } else {
                                          if (features[3] < 2.500000f) {
                                              if (features[2] < 13.500000f) {
                                                  return 1.000000f;
                                              } else {
                                                  return 12.837209f;
                                              }
                                          } else {
                                              if (features[0] < 54.500000f) {
                                                  return 28.714286f;
                                              } else {
                                                  return 61.000000f;
                                              }
                                          }
                                      }
                                  }
                              } else {
                                  if (features[3] < 1.500000f) {
                                      if (features[0] < 49.500000f) {
                                          if (features[4] < 186.299995f) {
                                              return 53.000000f;
                                          } else {
                                              return 26.000000f;
                                          }
                                      } else {
                                          if (features[4] < 161.799995f) {
                                              return 17.000000f;
                                          } else {
                                              return 0.000000f;
                                          }
                                      }
                                  } else {
                                      if (features[0] < 54.500000f) {
                                          if (features[2] < 23.500000f) {
                                              if (features[4] < 192.849998f) {
                                                  return 28.265610f;
                                              } else {
                                                  return 70.000000f;
                                              }
                                          } else {
                                              if (features[1] < 1315.500000f) {
                                                  return 6.517241f;
                                              } else {
                                                  return 27.131148f;
                                              }
                                          }
                                      } else {
                                          if (features[2] < 16.500000f) {
                                              if (features[1] < 2033.500000f) {
                                                  return 33.560440f;
                                              } else {
                                                  return 71.000000f;
                                              }
                                          } else {
                                              if (features[1] < 994.000000f) {
                                                  return 21.000000f;
                                              } else {
                                                  return 30.600601f;
                                              }
                                          }
                                      }
                                  }
                              }
                          } else {
                              if (features[1] < 1232.500000f) {
                                  if (features[1] < 1176.500000f) {
                                      return 86.000000f;
                                  } else {
                                      return 71.000000f;
                                  }
                              } else {
                                  if (features[2] < 41.500000f) {
                                      if (features[4] < 194.150002f) {
                                          if (features[2] < 35.500000f) {
                                              return 28.000000f;
                                          } else {
                                              if (features[1] < 1246.000000f) {
                                                  return 4.000000f;
                                              } else {
                                                  return 0.000000f;
                                              }
                                          }
                                      } else {
                                          return 71.000000f;
                                      }
                                  } else {
                                      if (features[2] < 61.500000f) {
                                          if (features[2] < 49.500000f) {
                                              if (features[1] < 2350.500000f) {
                                                  return 40.031250f;
                                              } else {
                                                  return 52.280000f;
                                              }
                                          } else {
                                              if (features[1] < 2413.500000f) {
                                                  return 35.696809f;
                                              } else {
                                                  return 50.857143f;
                                              }
                                          }
                                      } else {
                                          return 74.000000f;
                                      }
                                  }
                              }
                          }
                      } else {
                          if (features[0] < 58.500000f) {
                              if (features[2] < 55.500000f) {
                                  if (features[1] < 617.000000f) {
                                      if (features[0] < 57.500000f) {
                                          if (features[1] < 554.000000f) {
                                              if (features[4] < 194.099998f) {
                                                  return 46.000000f;
                                              } else {
                                                  return 48.000000f;
                                              }
                                          } else {
                                              if (features[3] < 1.500000f) {
                                                  return 42.000000f;
                                              } else {
                                                  return 38.333333f;
                                              }
                                          }
                                      } else {
                                          if (features[2] < 13.000000f) {
                                              if (features[4] < 179.550003f) {
                                                  return 70.000000f;
                                              } else {
                                                  return 73.000000f;
                                              }
                                          } else {
                                              if (features[1] < 570.500000f) {
                                                  return 51.000000f;
                                              } else {
                                                  return 38.000000f;
                                              }
                                          }
                                      }
                                  } else {
                                      if (features[2] < 19.500000f) {
                                          if (features[0] < 57.500000f) {
                                              if (features[1] < 2339.000000f) {
                                                  return 34.140667f;
                                              } else {
                                                  return 0.000000f;
                                              }
                                          } else {
                                              if (features[1] < 626.000000f) {
                                                  return 0.000000f;
                                              } else {
                                                  return 36.160995f;
                                              }
                                          }
                                      } else {
                                          if (features[1] < 757.000000f) {
                                              if (features[3] < 2.500000f) {
                                                  return 37.000000f;
                                              } else {
                                                  return 66.000000f;
                                              }
                                          } else {
                                              if (features[3] < 1.500000f) {
                                                  return 2.000000f;
                                              } else {
                                                  return 32.827662f;
                                              }
                                          }
                                      }
                                  }
                              } else {
                                  if (features[1] < 2258.000000f) {
                                      if (features[2] < 59.500000f) {
                                          if (features[0] < 56.500000f) {
                                              if (features[2] < 58.500000f) {
                                                  return 43.259259f;
                                              } else {
                                                  return 33.250000f;
                                              }
                                          } else {
                                              if (features[4] < 192.000000f) {
                                                  return 47.320000f;
                                              } else {
                                                  return 43.560000f;
                                              }
                                          }
                                      } else {
                                          return 28.000000f;
                                      }
                                  } else {
                                      if (features[2] < 60.500000f) {
                                          if (features[4] < 192.949997f) {
                                              if (features[4] < 190.549995f) {
                                                  return 24.000000f;
                                              } else {
                                                  return 33.000000f;
                                              }
                                          } else {
                                              if (features[0] < 56.500000f) {
                                                  return 31.000000f;
                                              } else {
                                                  return 44.500000f;
                                              }
                                          }
                                      } else {
                                          if (features[4] < 194.349998f) {
                                              if (features[4] < 193.199997f) {
                                                  return 25.000000f;
                                              } else {
                                                  return 27.000000f;
                                              }
                                          } else {
                                              return 21.000000f;
                                          }
                                      }
                                  }
                              }
                          } else {
                              if (features[2] < 20.500000f) {
                                  if (features[1] < 1279.000000f) {
                                      if (features[4] < 187.650002f) {
                                          if (features[4] < 187.250000f) {
                                              if (features[3] < 1.500000f) {
                                                  return 33.904762f;
                                              } else {
                                                  return 39.758584f;
                                              }
                                          } else {
                                              if (features[1] < 1050.500000f) {
                                                  return 48.266667f;
                                              } else {
                                                  return 39.285714f;
                                              }
                                          }
                                      } else {
                                          if (features[1] < 565.000000f) {
                                              if (features[2] < 7.500000f) {
                                                  return 47.833333f;
                                              } else {
                                                  return 51.500000f;
                                              }
                                          } else {
                                              if (features[1] < 588.000000f) {
                                                  return 0.000000f;
                                              } else {
                                                  return 37.519288f;
                                              }
                                          }
                                      }
                                  } else {
                                      if (features[0] < 59.500000f) {
                                          if (features[4] < 186.650002f) {
                                              if (features[2] < 8.500000f) {
                                                  return 32.166667f;
                                              } else {
                                                  return 37.059406f;
                                              }
                                          } else {
                                              if (features[2] < 16.500000f) {
                                                  return 36.297297f;
                                              } else {
                                                  return 34.104762f;
                                              }
                                          }
                                      } else {
                                          if (features[4] < 186.150002f) {
                                              if (features[1] < 1286.000000f) {
                                                  return 24.000000f;
                                              } else {
                                                  return 39.019868f;
                                              }
                                          } else {
                                              if (features[1] < 2069.500000f) {
                                                  return 36.476868f;
                                              } else {
                                                  return 44.400000f;
                                              }
                                          }
                                      }
                                  }
                              } else {
                                  if (features[2] < 56.500000f) {
                                      if (features[1] < 991.500000f) {
                                          if (features[2] < 30.000000f) {
                                              if (features[3] < 2.500000f) {
                                                  return 42.645161f;
                                              } else {
                                                  return 37.594595f;
                                              }
                                          } else {
                                              return 70.000000f;
                                          }
                                      } else {
                                          if (features[4] < 183.150002f) {
                                              if (features[4] < 121.849998f) {
                                                  return 39.479167f;
                                              } else {
                                                  return 36.219807f;
                                              }
                                          } else {
                                              if (features[1] < 2162.500000f) {
                                                  return 34.536528f;
                                              } else {
                                                  return 37.653266f;
                                              }
                                          }
                                      }
                                  } else {
                                      if (features[4] < 190.849998f) {
                                          if (features[1] < 2360.500000f) {
                                              if (features[1] < 2203.000000f) {
                                                  return 28.333333f;
                                              } else {
                                                  return 30.450000f;
                                              }
                                          } else {
                                              if (features[1] < 2363.500000f) {
                                                  return 25.000000f;
                                              } else {
                                                  return 29.000000f;
                                              }
                                          }
                                      } else {
                                          if (features[1] < 2270.000000f) {
                                              if (features[1] < 2176.000000f) {
                                                  return 37.222222f;
                                              } else {
                                                  return 45.826923f;
                                              }
                                          } else {
                                              if (features[0] < 59.500000f) {
                                                  return 24.200000f;
                                              } else {
                                                  return 34.545455f;
                                              }
                                          }
                                      }
                                  }
                              }
                          }
                      }
                  }
              } else {
                  if (features[0] < 64.500000f) {
                      if (features[2] < 21.500000f) {
                          if (features[0] < 62.500000f) {
                              if (features[3] < 1.500000f) {
                                  if (features[1] < 756.000000f) {
                                      if (features[4] < 119.049999f) {
                                          return 74.000000f;
                                      } else {
                                          if (features[4] < 186.649994f) {
                                              if (features[1] < 749.500000f) {
                                                  return 32.333333f;
                                              } else {
                                                  return 54.000000f;
                                              }
                                          } else {
                                              if (features[1] < 636.500000f) {
                                                  return 43.000000f;
                                              } else {
                                                  return 48.500000f;
                                              }
                                          }
                                      }
                                  } else {
                                      if (features[4] < 188.200005f) {
                                          if (features[1] < 1554.500000f) {
                                              if (features[1] < 784.000000f) {
                                                  return 10.000000f;
                                              } else {
                                                  return 23.965517f;
                                              }
                                          } else {
                                              return 42.000000f;
                                          }
                                      } else {
                                          if (features[2] < 13.000000f) {
                                              return 0.000000f;
                                          } else {
                                              return 3.000000f;
                                          }
                                      }
                                  }
                              } else {
                                  if (features[4] < 184.250000f) {
                                      if (features[2] < 5.500000f) {
                                          if (features[1] < 1456.500000f) {
                                              if (features[1] < 782.000000f) {
                                                  return 45.375000f;
                                              } else {
                                                  return 42.941176f;
                                              }
                                          } else {
                                              return 94.000000f;
                                          }
                                      } else {
                                          if (features[0] < 61.500000f) {
                                              if (features[1] < 2057.500000f) {
                                                  return 41.838634f;
                                              } else {
                                                  return 24.000000f;
                                              }
                                          } else {
                                              if (features[1] < 1168.500000f) {
                                                  return 44.575581f;
                                              } else {
                                                  return 42.769767f;
                                              }
                                          }
                                      }
                                  } else {
                                      if (features[1] < 780.000000f) {
                                          if (features[1] < 581.000000f) {
                                              if (features[2] < 16.500000f) {
                                                  return 51.705882f;
                                              } else {
                                                  return 44.400000f;
                                              }
                                          } else {
                                              if (features[3] < 2.500000f) {
                                                  return 43.365079f;
                                              } else {
                                                  return 39.470588f;
                                              }
                                          }
                                      } else {
                                          if (features[0] < 61.500000f) {
                                              if (features[2] < 9.500000f) {
                                                  return 42.946429f;
                                              } else {
                                                  return 38.288568f;
                                              }
                                          } else {
                                              if (features[1] < 781.500000f) {
                                                  return 0.000000f;
                                              } else {
                                                  return 40.296830f;
                                              }
                                          }
                                      }
                                  }
                              }
                          } else {
                              if (features[3] < 1.500000f) {
                                  if (features[1] < 799.500000f) {
                                      if (features[4] < 175.799995f) {
                                          if (features[1] < 651.000000f) {
                                              if (features[1] < 630.500000f) {
                                                  return 27.000000f;
                                              } else {
                                                  return 36.600000f;
                                              }
                                          } else {
                                              if (features[1] < 703.500000f) {
                                                  return 27.000000f;
                                              } else {
                                                  return 24.000000f;
                                              }
                                          }
                                      } else {
                                          if (features[4] < 186.400002f) {
                                              if (features[0] < 63.500000f) {
                                                  return 70.250000f;
                                              } else {
                                                  return 45.000000f;
                                              }
                                          } else {
                                              if (features[4] < 188.400002f) {
                                                  return 30.285714f;
                                              } else {
                                                  return 40.107143f;
                                              }
                                          }
                                      }
                                  } else {
                                      if (features[4] < 186.500000f) {
                                          if (features[0] < 63.500000f) {
                                              if (features[1] < 1633.500000f) {
                                                  return 20.000000f;
                                              } else {
                                                  return 28.000000f;
                                              }
                                          } else {
                                              if (features[2] < 5.500000f) {
                                                  return 23.428571f;
                                              } else {
                                                  return 26.750000f;
                                              }
                                          }
                                      } else {
                                          if (features[4] < 191.650002f) {
                                              if (features[1] < 1899.500000f) {
                                                  return 27.263158f;
                                              } else {
                                                  return 32.000000f;
                                              }
                                          } else {
                                              return 22.000000f;
                                          }
                                      }
                                  }
                              } else {
                                  if (features[4] < 185.250000f) {
                                      if (features[0] < 63.500000f) {
                                          if (features[2] < 18.500000f) {
                                              if (features[4] < 133.050003f) {
                                                  return 48.578313f;
                                              } else {
                                                  return 45.134768f;
                                              }
                                          } else {
                                              if (features[4] < 182.650002f) {
                                                  return 44.315152f;
                                              } else {
                                                  return 39.080460f;
                                              }
                                          }
                                      } else {
                                          if (features[4] < 130.699997f) {
                                              if (features[1] < 829.500000f) {
                                                  return 47.000000f;
                                              } else {
                                                  return 50.375000f;
                                              }
                                          } else {
                                              if (features[4] < 140.900002f) {
                                                  return 41.522727f;
                                              } else {
                                                  return 47.273121f;
                                              }
                                          }
                                      }
                                  } else {
                                      if (features[1] < 1179.500000f) {
                                          if (features[3] < 2.500000f) {
                                              if (features[1] < 800.500000f) {
                                                  return 46.390184f;
                                              } else {
                                                  return 44.769231f;
                                              }
                                          } else {
                                              if (features[2] < 14.500000f) {
                                                  return 39.784810f;
                                              } else {
                                                  return 42.583190f;
                                              }
                                          }
                                      } else {
                                          if (features[2] < 11.500000f) {
                                              if (features[4] < 185.349998f) {
                                                  return 26.000000f;
                                              } else {
                                                  return 43.723958f;
                                              }
                                          } else {
                                              if (features[4] < 192.500000f) {
                                                  return 41.305485f;
                                              } else {
                                                  return 38.423077f;
                                              }
                                          }
                                      }
                                  }
                              }
                          }
                      } else {
                          if (features[2] < 35.500000f) {
                              if (features[0] < 62.500000f) {
                                  if (features[4] < 187.250000f) {
                                      if (features[4] < 183.550003f) {
                                          if (features[3] < 1.500000f) {
                                              return 14.000000f;
                                          } else {
                                              if (features[4] < 116.650002f) {
                                                  return 44.727273f;
                                              } else {
                                                  return 39.543902f;
                                              }
                                          }
                                      } else {
                                          if (features[1] < 1611.500000f) {
                                              if (features[0] < 61.500000f) {
                                                  return 37.963211f;
                                              } else {
                                                  return 39.902685f;
                                              }
                                          } else {
                                              if (features[1] < 2585.000000f) {
                                                  return 36.840194f;
                                              } else {
                                                  return 50.200000f;
                                              }
                                          }
                                      }
                                  } else {
                                      if (features[1] < 1018.500000f) {
                                          if (features[3] < 2.500000f) {
                                              if (features[2] < 23.500000f) {
                                                  return 44.440000f;
                                              } else {
                                                  return 38.666667f;
                                              }
                                          } else {
                                              if (features[1] < 1013.500000f) {
                                                  return 39.500000f;
                                              } else {
                                                  return 44.000000f;
                                              }
                                          }
                                      } else {
                                          if (features[4] < 194.250000f) {
                                              if (features[1] < 1515.500000f) {
                                                  return 37.529865f;
                                              } else {
                                                  return 36.128105f;
                                              }
                                          } else {
                                              if (features[3] < 3.500000f) {
                                                  return 34.352941f;
                                              } else {
                                                  return 25.923077f;
                                              }
                                          }
                                      }
                                  }
                              } else {
                                  if (features[4] < 184.849998f) {
                                      if (features[4] < 135.449997f) {
                                          if (features[4] < 117.099998f) {
                                              if (features[2] < 28.000000f) {
                                                  return 54.111111f;
                                              } else {
                                                  return 47.888889f;
                                              }
                                          } else {
                                              if (features[0] < 63.500000f) {
                                                  return 44.352941f;
                                              } else {
                                                  return 46.620690f;
                                              }
                                          }
                                      } else {
                                          if (features[3] < 2.500000f) {
                                              if (features[4] < 152.050003f) {
                                                  return 26.526316f;
                                              } else {
                                                  return 42.686747f;
                                              }
                                          } else {
                                              if (features[1] < 2627.500000f) {
                                                  return 42.977553f;
                                              } else {
                                                  return 28.750000f;
                                              }
                                          }
                                      }
                                  } else {
                                      if (features[1] < 2716.000000f) {
                                          if (features[1] < 1459.500000f) {
                                              if (features[3] < 3.500000f) {
                                                  return 41.978818f;
                                              } else {
                                                  return 38.039801f;
                                              }
                                          } else {
                                              if (features[4] < 190.550003f) {
                                                  return 39.425637f;
                                              } else {
                                                  return 37.310680f;
                                              }
                                          }
                                      } else {
                                          if (features[1] < 2759.000000f) {
                                              return 93.000000f;
                                          } else {
                                              if (features[2] < 32.000000f) {
                                                  return 42.000000f;
                                              } else {
                                                  return 38.000000f;
                                              }
                                          }
                                      }
                                  }
                              }
                          } else {
                              if (features[1] < 2170.500000f) {
                                  if (features[4] < 181.449997f) {
                                      if (features[4] < 161.099998f) {
                                          if (features[4] < 146.650002f) {
                                              if (features[4] < 144.200005f) {
                                                  return 45.571429f;
                                              } else {
                                                  return 47.000000f;
                                              }
                                          } else {
                                              if (features[4] < 151.299995f) {
                                                  return 41.294118f;
                                              } else {
                                                  return 43.111111f;
                                              }
                                          }
                                      } else {
                                          if (features[0] < 63.500000f) {
                                              if (features[2] < 60.000000f) {
                                                  return 38.176471f;
                                              } else {
                                                  return 34.666667f;
                                              }
                                          } else {
                                              if (features[2] < 48.000000f) {
                                                  return 41.636364f;
                                              } else {
                                                  return 36.250000f;
                                              }
                                          }
                                      }
                                  } else {
                                      if (features[0] < 63.500000f) {
                                          if (features[4] < 190.449997f) {
                                              if (features[0] < 62.500000f) {
                                                  return 34.984344f;
                                              } else {
                                                  return 36.713987f;
                                              }
                                          } else {
                                              if (features[1] < 2075.500000f) {
                                                  return 33.977636f;
                                              } else {
                                                  return 36.254453f;
                                              }
                                          }
                                      } else {
                                          if (features[4] < 193.550003f) {
                                              if (features[1] < 1519.000000f) {
                                                  return 39.615385f;
                                              } else {
                                                  return 37.089457f;
                                              }
                                          } else {
                                              if (features[4] < 194.750000f) {
                                                  return 34.383234f;
                                              } else {
                                                  return 36.265403f;
                                              }
                                          }
                                      }
                                  }
                              } else {
                                  if (features[4] < 191.150002f) {
                                      if (features[2] < 56.500000f) {
                                          if (features[4] < 177.400002f) {
                                              if (features[0] < 63.500000f) {
                                                  return 40.905405f;
                                              } else {
                                                  return 44.736842f;
                                              }
                                          } else {
                                              if (features[0] < 61.500000f) {
                                                  return 35.666667f;
                                              } else {
                                                  return 38.855072f;
                                              }
                                          }
                                      } else {
                                          if (features[0] < 63.500000f) {
                                              if (features[2] < 58.500000f) {
                                                  return 35.303030f;
                                              } else {
                                                  return 32.801802f;
                                              }
                                          } else {
                                              if (features[2] < 59.500000f) {
                                                  return 37.335404f;
                                              } else {
                                                  return 34.987013f;
                                              }
                                          }
                                      }
                                  } else {
